svm_type c_svc
kernel_type rbf
gamma 10
nr_class 2
total_sv 1072
rho 3.4232
label 1 -1
nr_sv 536 536
SV
1 0:0.301561 1:0.49629599 
1 0:0.313144 1:0.50218499 
1 0:0.30420801 1:0.49625799 
1 0:0.30111 1:0.497969 
1 0:0.30431101 1:0.47771299 
1 0:0.308137 1:0.49288601 
1 0:0.30362099 1:0.496389 
1 0:0.31236199 1:0.472303 
1 0:0.30129901 1:0.49423701 
1 0:0.29727399 1:0.484575 
1 0:0.30181399 1:0.498604 
1 0:0.31529999 1:0.50737202 
1 0:0.278615 1:0.45189801 
1 0:0.28955799 1:0.4479 
1 0:0.28411099 1:0.46182001 
1 0:0.288939 1:0.465514 
1 0:0.30912399 1:0.50189102 
1 0:0.30957901 1:0.51507503 
1 0:0.300771 1:0.46893901 
1 0:0.31310201 1:0.494046 
1 0:0.31679901 1:0.515876 
1 0:0.31146199 1:0.51701802 
1 0:0.311647 1:0.51847398 
1 0:0.31962499 1:0.49214101 
1 0:0.31015599 1:0.51299 
1 0:0.30226699 1:0.501504 
1 0:0.30212301 1:0.49491599 
1 0:0.30522799 1:0.50487399 
1 0:0.301128 1:0.49808401 
1 0:0.301833 1:0.47305101 
1 0:0.30540699 1:0.49432701 
1 0:0.30520299 1:0.50695401 
1 0:0.307713 1:0.47516301 
1 0:0.30332899 1:0.50300801 
1 0:0.294866 1:0.48421001 
1 0:0.29990599 1:0.487124 
1 0:0.30474401 1:0.50639999 
1 0:0.31417501 1:0.50814801 
1 0:0.278054 1:0.44086 
1 0:0.288645 1:0.47900799 
1 0:0.283593 1:0.451368 
1 0:0.28122699 1:0.46457899 
1 0:0.28960699 1:0.469717 
1 0:0.30986199 1:0.50228399 
1 0:0.30361 1:0.45726299 
1 0:0.31194201 1:0.49476901 
1 0:0.30884701 1:0.51861799 
1 0:0.312727 1:0.525572 
1 0:0.318872 1:0.51807499 
1 0:0.31660599 1:0.51463598 
1 0:0.30558801 1:0.49219099 
1 0:0.30797201 1:0.51104999 
1 0:0.32071701 1:0.50054097 
1 0:0.31807601 1:0.51896203 
1 0:0.31807601 1:0.51896203 
1 0:0.31674999 1:0.51071602 
1 0:0.324494 1:0.50097299 
1 0:0.321738 1:0.50072098 
1 0:0.321738 1:0.50072098 
1 0:0.27361301 1:0.43656999 
1 0:0.248321 1:0.434769 
1 0:0.27971399 1:0.43752199 
1 0:0.27228001 1:0.45284399 
1 0:0.27537999 1:0.38779399 
1 0:0.27455801 1:0.438346 
1 0:0.2992 1:0.493016 
1 0:0.2992 1:0.493016 
1 0:0.2992 1:0.493016 
1 0:0.29706499 1:0.49002299 
1 0:0.30307999 1:0.48885399 
1 0:0.320382 1:0.50353801 
1 0:0.315925 1:0.52792001 
1 0:0.315925 1:0.52792001 
1 0:0.31093499 1:0.51113802 
1 0:0.32634699 1:0.44556299 
1 0:0.29753199 1:0.445052 
1 0:0.29753199 1:0.445052 
1 0:0.29753199 1:0.445052 
1 0:0.29753199 1:0.445052 
1 0:0.29753199 1:0.445052 
1 0:0.29629201 1:0.48149201 
1 0:0.28724599 1:0.47583199 
1 0:0.27686799 1:0.43452799 
1 0:0.26753601 1:0.43868101 
1 0:0.28516999 1:0.455504 
1 0:0.29863399 1:0.487932 
1 0:0.29863399 1:0.487932 
1 0:0.29863399 1:0.487932 
1 0:0.29864001 1:0.488143 
1 0:0.310772 1:0.49885899 
1 0:0.31041801 1:0.51999903 
1 0:0.31041801 1:0.51999903 
1 0:0.31122401 1:0.51113802 
1 0:0.30380899 1:0.50493401 
1 0:0.33467799 1:0.44285601 
1 0:0.302883 1:0.43896899 
1 0:0.302883 1:0.43896899 
1 0:0.302883 1:0.43896899 
1 0:0.302883 1:0.43896899 
1 0:0.302883 1:0.43896899 
1 0:0.29727399 1:0.48149201 
1 0:0.31599799 1:0.53013599 
1 0:0.274553 1:0.432803 
1 0:0.270096 1:0.435747 
1 0:0.297472 1:0.45794499 
1 0:0.32004601 1:0.50028098 
1 0:0.315359 1:0.51941103 
1 0:0.308815 1:0.51135802 
1 0:0.31283 1:0.516128 
1 0:0.31021601 1:0.51122701 
1 0:0.30700201 1:0.51074201 
1 0:0.30408499 1:0.488601 
1 0:0.313306 1:0.485452 
1 0:0.30546999 1:0.493007 
1 0:0.30546999 1:0.493007 
1 0:0.30546999 1:0.493007 
1 0:0.30546999 1:0.493007 
1 0:0.30546999 1:0.493007 
1 0:0.30546999 1:0.493007 
1 0:0.30546999 1:0.493007 
1 0:0.30546999 1:0.493007 
1 0:0.30546999 1:0.493007 
1 0:0.30546999 1:0.493007 
1 0:0.33859399 1:0.440703 
1 0:0.30122399 1:0.4817 
1 0:0.30588201 1:0.49208701 
1 0:0.30588201 1:0.49208701 
1 0:0.30588201 1:0.49208701 
1 0:0.30588201 1:0.49208701 
1 0:0.30588201 1:0.49208701 
1 0:0.30588201 1:0.49208701 
1 0:0.30588201 1:0.49208701 
1 0:0.30588201 1:0.49208701 
1 0:0.30588201 1:0.49208701 
1 0:0.31524101 1:0.50636297 
1 0:0.31524101 1:0.50636297 
1 0:0.314789 1:0.50659698 
1 0:0.320328 1:0.55789798 
1 0:0.31446001 1:0.53504503 
1 0:0.332726 1:0.49810499 
1 0:0.332726 1:0.49810499 
1 0:0.332726 1:0.49810499 
1 0:0.332726 1:0.49810499 
1 0:0.332726 1:0.49810499 
1 0:0.332726 1:0.49810499 
1 0:0.332726 1:0.49810499 
1 0:0.304782 1:0.50856799 
1 0:0.31019101 1:0.506019 
1 0:0.294314 1:0.47139001 
1 0:0.29585701 1:0.48668101 
1 0:0.30177 1:0.48431101 
1 0:0.299171 1:0.46768299 
1 0:0.299171 1:0.46768299 
1 0:0.29868701 1:0.47926199 
1 0:0.31387299 1:0.46475601 
1 0:0.30513999 1:0.449761 
1 0:0.30513999 1:0.449761 
1 0:0.30630201 1:0.46080101 
1 0:0.29115701 1:0.46996099 
1 0:0.304966 1:0.50853598 
1 0:0.309791 1:0.51120299 
1 0:0.28707501 1:0.475768 
1 0:0.28707501 1:0.475768 
1 0:0.29157701 1:0.47993401 
1 0:0.31136701 1:0.51783299 
0.5126339933105457 0:0.299927 1:0.49869001 
1 0:0.30566901 1:0.488931 
1 0:0.308348 1:0.483264 
1 0:0.31042799 1:0.49274501 
1 0:0.31042799 1:0.49274501 
1 0:0.31042799 1:0.49274501 
1 0:0.31042799 1:0.49274501 
1 0:0.31042799 1:0.49274501 
1 0:0.31042799 1:0.49274501 
1 0:0.31042799 1:0.49274501 
1 0:0.31042799 1:0.49274501 
1 0:0.31042799 1:0.49274501 
1 0:0.31042799 1:0.49274501 
1 0:0.336642 1:0.43589601 
1 0:0.301366 1:0.4817 
1 0:0.305684 1:0.49068201 
1 0:0.305684 1:0.49068201 
1 0:0.305684 1:0.49068201 
1 0:0.305684 1:0.49068201 
1 0:0.305684 1:0.49068201 
1 0:0.305684 1:0.49068201 
1 0:0.305684 1:0.49068201 
1 0:0.305684 1:0.49068201 
1 0:0.305684 1:0.49068201 
1 0:0.32396501 1:0.49408701 
1 0:0.32396501 1:0.49408701 
1 0:0.35216701 1:0.49609801 
1 0:0.31531599 1:0.53979701 
1 0:0.32291499 1:0.50486797 
1 0:0.32291499 1:0.50486797 
1 0:0.32291499 1:0.50486797 
1 0:0.32291499 1:0.50486797 
1 0:0.32291499 1:0.50486797 
1 0:0.32291499 1:0.50486797 
1 0:0.32291499 1:0.50486797 
1 0:0.305381 1:0.50856698 
1 0:0.31097299 1:0.50343698 
1 0:0.29569799 1:0.47011501 
1 0:0.295715 1:0.48668101 
1 0:0.30234 1:0.48128599 
1 0:0.298556 1:0.46768299 
1 0:0.298556 1:0.46768299 
1 0:0.298233 1:0.47926199 
1 0:0.30949801 1:0.45620501 
1 0:0.30338401 1:0.44738501 
1 0:0.30338401 1:0.44738501 
1 0:0.301393 1:0.466456 
1 0:0.30003899 1:0.49691299 
1 0:0.29823101 1:0.490062 
1 0:0.284067 1:0.468914 
1 0:0.26019001 1:0.439895 
1 0:0.276952 1:0.42275 
1 0:0.279549 1:0.44435701 
1 0:0.279549 1:0.44435701 
1 0:0.279549 1:0.44435701 
1 0:0.289491 1:0.46329999 
1 0:0.28408599 1:0.45828399 
1 0:0.28246501 1:0.468568 
1 0:0.286681 1:0.47262701 
1 0:0.28316799 1:0.45477101 
1 0:0.264586 1:0.44911599 
1 0:0.266918 1:0.44199201 
1 0:0.26693699 1:0.44553399 
1 0:0.29352501 1:0.44247201 
1 0:0.259563 1:0.433117 
1 0:0.26551801 1:0.45087701 
1 0:0.279576 1:0.46590999 
1 0:0.27459499 1:0.445719 
1 0:0.297405 1:0.45905799 
1 0:0.30079001 1:0.44685 
1 0:0.29660401 1:0.454512 
1 0:0.26801899 1:0.41172901 
1 0:0.252924 1:0.41101199 
1 0:0.2485 1:0.42218599 
1 0:0.241642 1:0.415075 
1 0:0.247982 1:0.420439 
1 0:0.241859 1:0.41452199 
1 0:0.250949 1:0.43028301 
1 0:0.25801599 1:0.44022599 
1 0:0.25762501 1:0.41810501 
1 0:0.252175 1:0.40152699 
1 0:0.27214101 1:0.42556801 
1 0:0.27835399 1:0.450542 
1 0:0.276335 1:0.39822501 
1 0:0.26344001 1:0.40082699 
1 0:0.26698801 1:0.44812399 
1 0:0.26148099 1:0.39549801 
1 0:0.26577899 1:0.40735799 
1 0:0.27692801 1:0.421792 
1 0:0.241511 1:0.36520201 
1 0:0.24206799 1:0.40306899 
1 0:0.248377 1:0.35045701 
1 0:0.247806 1:0.350389 
1 0:0.22712 1:0.353311 
1 0:0.22602101 1:0.35350099 
1 0:0.23192 1:0.38074601 
1 0:0.22531401 1:0.38117799 
1 0:0.27111799 1:0.366335 
1 0:0.233586 1:0.36311799 
1 0:0.25350001 1:0.38005 
1 0:0.232407 1:0.38503301 
1 0:0.25708199 1:0.38785601 
1 0:0.25466099 1:0.41488501 
1 0:0.25466099 1:0.41488501 
1 0:0.252969 1:0.41989201 
1 0:0.242634 1:0.399483 
1 0:0.247446 1:0.41804701 
1 0:0.25234601 1:0.42231101 
1 0:0.25023401 1:0.43166 
1 0:0.247881 1:0.42907101 
1 0:0.240045 1:0.41817799 
1 0:0.259247 1:0.43404999 
1 0:0.248027 1:0.42979601 
1 0:0.25793999 1:0.43592501 
1 0:0.27220801 1:0.388271 
1 0:0.30555499 1:0.476585 
1 0:0.282951 1:0.46217501 
1 0:0.29713801 1:0.44942999 
1 0:0.29259101 1:0.40943199 
1 0:0.285171 1:0.443077 
1 0:0.283108 1:0.421307 
1 0:0.28620699 1:0.40955099 
1 0:0.27337101 1:0.40134799 
1 0:0.291457 1:0.41495401 
1 0:0.27734199 1:0.35236701 
1 0:0.270464 1:0.44010201 
1 0:0.259848 1:0.433236 
1 0:0.26198301 1:0.42278001 
1 0:0.25294501 1:0.42006701 
1 0:0.255393 1:0.38750699 
1 0:0.295468 1:0.41544101 
1 0:0.27875 1:0.41777799 
1 0:0.31405601 1:0.405305 
1 0:0.30396101 1:0.39765301 
1 0:0.273633 1:0.38851801 
1 0:0.28202099 1:0.417541 
1 0:0.262229 1:0.445815 
1 0:0.27339101 1:0.43060201 
1 0:0.27391401 1:0.41716701 
1 0:0.27042699 1:0.40124199 
1 0:0.27793899 1:0.40368 
1 0:0.26827401 1:0.38544199 
1 0:0.26964501 1:0.439123 
1 0:0.26036099 1:0.43698299 
1 0:0.27976301 1:0.442056 
1 0:0.27397501 1:0.456925 
1 0:0.27397501 1:0.456925 
1 0:0.27397501 1:0.456925 
1 0:0.280586 1:0.44970101 
1 0:0.26821101 1:0.438209 
1 0:0.28898701 1:0.464807 
1 0:0.278368 1:0.45424399 
1 0:0.27498499 1:0.440121 
1 0:0.30434299 1:0.45411399 
1 0:0.30398101 1:0.45606601 
1 0:0.29136199 1:0.47360599 
1 0:0.29124901 1:0.45719099 
1 0:0.25631699 1:0.42678899 
1 0:0.261345 1:0.37718499 
1 0:0.25144899 1:0.424308 
1 0:0.25228599 1:0.42973 
1 0:0.25184101 1:0.420176 
1 0:0.26101601 1:0.44585401 
1 0:0.25111499 1:0.427163 
1 0:0.26869899 1:0.41634399 
1 0:0.26899901 1:0.43346801 
1 0:0.27398601 1:0.40011799 
1 0:0.27260599 1:0.407574 
1 0:0.272172 1:0.40954399 
1 0:0.234446 1:0.37053499 
1 0:0.237358 1:0.380272 
1 0:0.251917 1:0.35487601 
1 0:0.26800999 1:0.34544301 
1 0:0.25030601 1:0.35411 
1 0:0.25071999 1:0.35031599 
1 0:0.233216 1:0.396283 
1 0:0.24084 1:0.37913701 
1 0:0.24650501 1:0.383394 
1 0:0.25079501 1:0.35708201 
1 0:0.251569 1:0.36418 
1 0:0.244978 1:0.390935 
1 0:0.25283 1:0.382346 
1 0:0.25546399 1:0.38547301 
1 0:0.24935 1:0.419965 
1 0:0.24447601 1:0.41626501 
1 0:0.241713 1:0.392737 
1 0:0.244782 1:0.41819999 
1 0:0.24731401 1:0.423677 
1 0:0.242226 1:0.42140499 
1 0:0.238919 1:0.426759 
1 0:0.249172 1:0.42433199 
1 0:0.25207201 1:0.43074599 
1 0:0.247843 1:0.42971301 
1 0:0.25167501 1:0.43165001 
1 0:0.25511101 1:0.43886599 
1 0:0.249147 1:0.41369 
1 0:0.25572899 1:0.44175601 
1 0:0.25572899 1:0.44175601 
1 0:0.24857999 1:0.40366 
1 0:0.25532499 1:0.400291 
1 0:0.25532499 1:0.400291 
1 0:0.25532499 1:0.400291 
1 0:0.25532499 1:0.400291 
1 0:0.30340999 1:0.503483 
1 0:0.29879901 1:0.49441099 
1 0:0.30268699 1:0.44529399 
1 0:0.28993401 1:0.44896799 
1 0:0.27902201 1:0.45749801 
1 0:0.28991601 1:0.45106199 
1 0:0.29757699 1:0.40807599 
1 0:0.29646999 1:0.425017 
1 0:0.29177299 1:0.43320799 
1 0:0.283759 1:0.45934701 
1 0:0.27201399 1:0.418154 
1 0:0.28270999 1:0.39865199 
1 0:0.28452301 1:0.423181 
1 0:0.28637701 1:0.42588899 
1 0:0.27033299 1:0.43517601 
1 0:0.26068199 1:0.411219 
1 0:0.26009199 1:0.406216 
1 0:0.25140101 1:0.42810401 
1 0:0.247464 1:0.40595001 
1 0:0.29853299 1:0.421547 
1 0:0.26754901 1:0.42060101 
1 0:0.31210801 1:0.39439201 
1 0:0.29854599 1:0.40008101 
1 0:0.272311 1:0.40697801 
1 0:0.314789 1:0.333976 
1 0:0.26101601 1:0.444711 
1 0:0.27223799 1:0.43753001 
1 0:0.25995299 1:0.414655 
1 0:0.272073 1:0.40179399 
1 0:0.26567501 1:0.41417599 
1 0:0.25148499 1:0.37993899 
1 0:0.26141199 1:0.406147 
1 0:0.30610999 1:0.50378698 
1 0:0.292348 1:0.465069 
1 0:0.28608701 1:0.472334 
1 0:0.29488 1:0.48840299 
1 0:0.30426601 1:0.49891099 
1 0:0.3091 1:0.51081502 
1 0:0.299474 1:0.49661201 
1 0:0.30886099 1:0.49180299 
1 0:0.30886099 1:0.49180299 
1 0:0.31765801 1:0.48481601 
1 0:0.32272199 1:0.47687501 
1 0:0.34247699 1:0.54568797 
1 0:0.330827 1:0.516339 
1 0:0.300908 1:0.48137999 
1 0:0.315622 1:0.505202 
1 0:0.32359701 1:0.563748 
1 0:0.31863299 1:0.51654601 
1 0:0.31237701 1:0.41705301 
1 0:0.295542 1:0.38324401 
1 0:0.34144399 1:0.441753 
1 0:0.34144399 1:0.441753 
1 0:0.29236299 1:0.471802 
1 0:0.31015 1:0.49611801 
1 0:0.31142899 1:0.47970799 
1 0:0.30446899 1:0.47595999 
1 0:0.31418699 1:0.48254499 
1 0:0.29734901 1:0.488877 
1 0:0.31180799 1:0.49300501 
1 0:0.31583899 1:0.50763899 
1 0:0.30626801 1:0.46285 
1 0:0.316376 1:0.40552601 
1 0:0.257166 1:0.41676301 
1 0:0.26779899 1:0.41070399 
1 0:0.301954 1:0.47785801 
1 0:0.27645701 1:0.44165 
1 0:0.292732 1:0.43925801 
1 0:0.302506 1:0.43999499 
1 0:0.294267 1:0.388946 
1 0:0.29746801 1:0.42501 
1 0:0.29746801 1:0.42501 
1 0:0.301323 1:0.49484801 
1 0:0.318818 1:0.50294203 
1 0:0.308909 1:0.44532299 
1 0:0.30562499 1:0.48076299 
1 0:0.30404499 1:0.468097 
1 0:0.31217301 1:0.51228601 
1 0:0.27778 1:0.45851201 
1 0:0.28378299 1:0.457582 
1 0:0.291206 1:0.47141701 
1 0:0.29268 1:0.47854501 
1 0:0.29599699 1:0.44227999 
1 0:0.29561299 1:0.47791001 
1 0:0.27830601 1:0.44349799 
1 0:0.284105 1:0.455735 
1 0:0.28202301 1:0.414473 
1 0:0.269936 1:0.417714 
1 0:0.270349 1:0.42824399 
1 0:0.258214 1:0.43706 
0.9424678072149149 0:0.26085001 1:0.44690701 
1 0:0.259808 1:0.41060299 
1 0:0.26809499 1:0.40611899 
1 0:0.28166401 1:0.39320499 
1 0:0.26936901 1:0.43293399 
1 0:0.25010499 1:0.423614 
1 0:0.28629601 1:0.406602 
1 0:0.285795 1:0.39005899 
1 0:0.308478 1:0.511917 
1 0:0.31108499 1:0.503932 
1 0:0.28828201 1:0.466636 
1 0:0.287718 1:0.47802499 
1 0:0.296361 1:0.484146 
1 0:0.301869 1:0.49369699 
1 0:0.308281 1:0.50923598 
1 0:0.307852 1:0.51269197 
1 0:0.28770101 1:0.47714299 
1 0:0.306517 1:0.51178098 
1 0:0.30923501 1:0.51469803 
1 0:0.32032901 1:0.47292501 
1 0:0.31278601 1:0.50409597 
1 0:0.32224199 1:0.483668 
1 0:0.34228501 1:0.52753502 
1 0:0.33224401 1:0.51966298 
1 0:0.30493799 1:0.490509 
1 0:0.31714001 1:0.50441998 
1 0:0.31714001 1:0.50441998 
1 0:0.364842 1:0.40863499 
1 0:0.364842 1:0.40863499 
1 0:0.364842 1:0.40863499 
1 0:0.296119 1:0.474935 
1 0:0.291242 1:0.452319 
1 0:0.27564499 1:0.437408 
1 0:0.27539399 1:0.43932599 
1 0:0.28036901 1:0.46393201 
1 0:0.30723101 1:0.49458501 
1 0:0.30723101 1:0.49458501 
1 0:0.30723101 1:0.49458501 
1 0:0.32124001 1:0.47811401 
1 0:0.28198901 1:0.46520001 
1 0:0.32326099 1:0.482474 
1 0:0.30238801 1:0.476758 
1 0:0.31061301 1:0.49347699 
1 0:0.320072 1:0.50460202 
1 0:0.296013 1:0.45913401 
1 0:0.31439 1:0.41218901 
1 0:0.28183699 1:0.44185001 
1 0:0.301263 1:0.488442 
1 0:0.27983001 1:0.42751199 
1 0:0.29845899 1:0.443753 
1 0:0.30442199 1:0.45670399 
1 0:0.31081501 1:0.40433201 
1 0:0.31081501 1:0.40433201 
1 0:0.31472701 1:0.491056 
1 0:0.316953 1:0.49457499 
1 0:0.299382 1:0.491559 
0.08030871684806871 0:0.28753099 1:0.47789699 
1 0:0.30993 1:0.43399799 
1 0:0.320149 1:0.49898899 
1 0:0.304084 1:0.47114301 
1 0:0.293513 1:0.46735799 
1 0:0.28205901 1:0.45915499 
1 0:0.265176 1:0.445627 
1 0:0.293549 1:0.458754 
1 0:0.28847599 1:0.452126 
1 0:0.282359 1:0.45555201 
1 0:0.29971901 1:0.43010801 
1 0:0.24447 1:0.421675 
1 0:0.27294099 1:0.433148 
1 0:0.260068 1:0.42447701 
1 0:0.26312801 1:0.43791401 
1 0:0.259399 1:0.42974699 
1 0:0.247733 1:0.416033 
1 0:0.26618701 1:0.395877 
1 0:0.27041 1:0.438591 
1 0:0.264451 1:0.423444 
1 0:0.306517 1:0.41821501 
1 0:0.29124999 1:0.38649499 
-1 0:0.270982 1:0.405534 
-1 0:0.274636 1:0.40850201 
-1 0:0.270879 1:0.43571499 
-1 0:0.282747 1:0.40817699 
-1 0:0.24624699 1:0.38566101 
-1 0:0.236773 1:0.373593 
-1 0:0.26334301 1:0.39849401 
-1 0:0.28011999 1:0.41057801 
-1 0:0.27055499 1:0.41245401 
-1 0:0.26210701 1:0.398996 
-1 0:0.26819599 1:0.43853101 
-1 0:0.26157001 1:0.390003 
-1 0:0.26300099 1:0.39168501 
-1 0:0.30233899 1:0.43367201 
-1 0:0.299043 1:0.42592299 
-1 0:0.277098 1:0.42854199 
-1 0:0.29157001 1:0.425116 
-1 0:0.249906 1:0.449543 
-1 0:0.249906 1:0.449543 
-1 0:0.249906 1:0.449543 
-1 0:0.249906 1:0.449543 
-1 0:0.249906 1:0.449543 
-1 0:0.249906 1:0.449543 
-1 0:0.249906 1:0.449543 
-1 0:0.249906 1:0.449543 
-1 0:0.249906 1:0.449543 
-1 0:0.249906 1:0.449543 
-1 0:0.249906 1:0.449543 
-1 0:0.249906 1:0.449543 
-1 0:0.249906 1:0.449543 
-1 0:0.249906 1:0.449543 
-1 0:0.249906 1:0.449543 
-1 0:0.249906 1:0.449543 
-1 0:0.249906 1:0.449543 
-1 0:0.249906 1:0.449543 
-1 0:0.249906 1:0.449543 
-1 0:0.249906 1:0.449543 
-1 0:0.30610201 1:0.46068099 
-1 0:0.29997399 1:0.43792501 
-1 0:0.29993901 1:0.47569099 
-1 0:0.31912699 1:0.474563 
-1 0:0.31912699 1:0.474563 
-1 0:0.31912699 1:0.474563 
-1 0:0.31912699 1:0.474563 
-1 0:0.31912699 1:0.474563 
-1 0:0.31912699 1:0.474563 
-1 0:0.31912699 1:0.474563 
-1 0:0.31912699 1:0.474563 
-1 0:0.31912699 1:0.474563 
-1 0:0.31912699 1:0.474563 
-1 0:0.31912699 1:0.474563 
-1 0:0.31912699 1:0.474563 
-1 0:0.31912699 1:0.474563 
-1 0:0.31912699 1:0.474563 
-1 0:0.31912699 1:0.474563 
-1 0:0.28175399 1:0.558613 
-1 0:0.32214901 1:0.52585101 
-1 0:0.31641501 1:0.44410101 
-1 0:0.32970399 1:0.51548302 
-1 0:0.32970399 1:0.51548302 
-1 0:0.35069501 1:0.51529801 
-1 0:0.35069501 1:0.51529801 
-1 0:0.35069501 1:0.51529801 
-1 0:0.35069501 1:0.51529801 
-1 0:0.35069501 1:0.51529801 
-1 0:0.35069501 1:0.51529801 
-1 0:0.35069501 1:0.51529801 
-1 0:0.35069501 1:0.51529801 
-1 0:0.35069501 1:0.51529801 
-1 0:0.35069501 1:0.51529801 
-1 0:0.326033 1:0.53125298 
-1 0:0.33118299 1:0.51418 
-1 0:0.33118299 1:0.51418 
-1 0:0.337657 1:0.498763 
-1 0:0.283077 1:0.40844899 
-1 0:0.283077 1:0.40844899 
-1 0:0.30968401 1:0.44275501 
-1 0:0.32996801 1:0.51607001 
-1 0:0.32250699 1:0.48840499 
-1 0:0.32250699 1:0.48840499 
-1 0:0.32250699 1:0.48840499 
-1 0:0.32250699 1:0.48840499 
-1 0:0.32250699 1:0.48840499 
-1 0:0.32250699 1:0.48840499 
-1 0:0.32250699 1:0.48840499 
-1 0:0.32250699 1:0.48840499 
-1 0:0.32250699 1:0.48840499 
-1 0:0.32250699 1:0.48840499 
-1 0:0.33638701 1:0.48341301 
-1 0:0.33638701 1:0.48341301 
-1 0:0.33638701 1:0.48341301 
-1 0:0.33638701 1:0.48341301 
-1 0:0.31016299 1:0.47590899 
-1 0:0.35398999 1:0.54948503 
-1 0:0.28055599 1:0.43651199 
-1 0:0.299858 1:0.42539901 
-1 0:0.255934 1:0.45129901 
-1 0:0.317873 1:0.54164797 
-1 0:0.317873 1:0.54164797 
-1 0:0.317873 1:0.54164797 
-1 0:0.317873 1:0.54164797 
-1 0:0.317873 1:0.54164797 
-1 0:0.317873 1:0.54164797 
-1 0:0.317873 1:0.54164797 
-1 0:0.317873 1:0.54164797 
-1 0:0.317873 1:0.54164797 
-1 0:0.317873 1:0.54164797 
-1 0:0.317873 1:0.54164797 
-1 0:0.317873 1:0.54164797 
-1 0:0.317873 1:0.54164797 
-1 0:0.317873 1:0.54164797 
-1 0:0.317873 1:0.54164797 
-1 0:0.317873 1:0.54164797 
-1 0:0.317873 1:0.54164797 
-1 0:0.309021 1:0.55102098 
-1 0:0.33125901 1:0.49620101 
-1 0:0.33025801 1:0.47155699 
-1 0:0.31246501 1:0.45300299 
-1 0:0.29175499 1:0.41804099 
-1 0:0.303404 1:0.473755 
-1 0:0.32364699 1:0.48266399 
-1 0:0.32364699 1:0.48266399 
-1 0:0.32364699 1:0.48266399 
-1 0:0.32364699 1:0.48266399 
-1 0:0.32364699 1:0.48266399 
-1 0:0.32364699 1:0.48266399 
-1 0:0.32364699 1:0.48266399 
-1 0:0.32364699 1:0.48266399 
-1 0:0.32364699 1:0.48266399 
-1 0:0.32364699 1:0.48266399 
-1 0:0.32364699 1:0.48266399 
-1 0:0.32364699 1:0.48266399 
-1 0:0.32364699 1:0.48266399 
-1 0:0.32364699 1:0.48266399 
-1 0:0.32364699 1:0.48266399 
-1 0:0.28863001 1:0.56167501 
-1 0:0.327353 1:0.53231001 
-1 0:0.31509 1:0.44486499 
-1 0:0.33359101 1:0.51751101 
-1 0:0.33359101 1:0.51751101 
-1 0:0.33764201 1:0.56437302 
-1 0:0.336907 1:0.52566898 
-1 0:0.336907 1:0.52566898 
-1 0:0.33862799 1:0.498763 
-1 0:0.28349 1:0.40844899 
-1 0:0.28349 1:0.40844899 
-1 0:0.301604 1:0.45036301 
-1 0:0.346111 1:0.515944 
-1 0:0.268482 1:0.39783099 
-1 0:0.31906399 1:0.46800601 
-1 0:0.32732701 1:0.48455599 
-1 0:0.35244501 1:0.55169702 
-1 0:0.35244501 1:0.55169702 
-1 0:0.35244501 1:0.55169702 
-1 0:0.35244501 1:0.55169702 
-1 0:0.35244501 1:0.55169702 
-1 0:0.35244501 1:0.55169702 
-1 0:0.35244501 1:0.55169702 
-1 0:0.35244501 1:0.55169702 
-1 0:0.35244501 1:0.55169702 
-1 0:0.32415801 1:0.46313801 
-1 0:0.32415801 1:0.46313801 
-1 0:0.32415801 1:0.46313801 
-1 0:0.35320401 1:0.54948503 
-1 0:0.271898 1:0.42921099 
-1 0:0.27504501 1:0.40978 
-1 0:0.29410201 1:0.42672399 
-1 0:0.30272499 1:0.43150401 
-1 0:0.30719399 1:0.44551399 
-1 0:0.32048401 1:0.45049399 
-1 0:0.30311301 1:0.508237 
-1 0:0.30176201 1:0.48446101 
-1 0:0.309701 1:0.454696 
-1 0:0.30656099 1:0.46160099 
-1 0:0.32497999 1:0.49127999 
-1 0:0.25912201 1:0.388805 
-1 0:0.28505599 1:0.42525801 
-1 0:0.34762499 1:0.50628603 
-1 0:0.35263401 1:0.51051003 
-1 0:0.33052099 1:0.48276401 
-1 0:0.33239999 1:0.4928 
-1 0:0.33379799 1:0.490096 
-1 0:0.345332 1:0.49733001 
-1 0:0.33905399 1:0.486146 
-1 0:0.34698001 1:0.51339501 
-1 0:0.34758499 1:0.50656301 
-1 0:0.33952501 1:0.49164701 
-1 0:0.28938901 1:0.431793 
-1 0:0.26318601 1:0.39161801 
-1 0:0.306272 1:0.467314 
-1 0:0.30049601 1:0.45524999 
-1 0:0.28665099 1:0.456981 
-1 0:0.282327 1:0.42594901 
-1 0:0.271633 1:0.40963501 
-1 0:0.286681 1:0.41813299 
-1 0:0.26767099 1:0.39858499 
-1 0:0.266065 1:0.40830401 
-1 0:0.273844 1:0.411881 
-1 0:0.25774801 1:0.41356501 
-1 0:0.26680499 1:0.40454999 
-1 0:0.237607 1:0.39904401 
-1 0:0.276701 1:0.40416101 
-1 0:0.265962 1:0.41479799 
-1 0:0.273276 1:0.39855 
-1 0:0.286688 1:0.426229 
-1 0:0.27196401 1:0.423475 
-1 0:0.26919699 1:0.39616901 
-1 0:0.25928101 1:0.40339801 
-1 0:0.29098901 1:0.414848 
-1 0:0.29271999 1:0.430213 
-1 0:0.26506099 1:0.399344 
-1 0:0.30082199 1:0.433339 
-1 0:0.30082199 1:0.433339 
-1 0:0.28353199 1:0.43685001 
-1 0:0.26536 1:0.40901899 
-1 0:0.25635901 1:0.43513 
-1 0:0.26458299 1:0.440364 
-1 0:0.298004 1:0.42603001 
-1 0:0.28002599 1:0.408595 
-1 0:0.278561 1:0.40396401 
-1 0:0.30040401 1:0.442738 
-1 0:0.26216701 1:0.42317799 
-1 0:0.28010499 1:0.40623799 
-1 0:0.28160599 1:0.42795199 
-1 0:0.26389399 1:0.39441201 
-1 0:0.29394999 1:0.42449901 
-1 0:0.24602 1:0.38526499 
-1 0:0.29808199 1:0.43048501 
-1 0:0.25578499 1:0.40721601 
-1 0:0.27255201 1:0.40695301 
-1 0:0.247676 1:0.40007699 
-1 0:0.261675 1:0.39951801 
-1 0:0.30120599 1:0.44097599 
-1 0:0.35196599 1:0.55705601 
-1 0:0.349428 1:0.59228402 
-1 0:0.317633 1:0.46597701 
-1 0:0.354451 1:0.55702698 
-1 0:0.35883999 1:0.54979002 
-1 0:0.35187599 1:0.57107502 
-1 0:0.351798 1:0.56199503 
-1 0:0.36349601 1:0.57432401 
-1 0:0.35603899 1:0.55949903 
-1 0:0.34889901 1:0.55211002 
-1 0:0.34967801 1:0.56451398 
-1 0:0.31860301 1:0.45857799 
-1 0:0.31607801 1:0.48098299 
-1 0:0.32699299 1:0.46907201 
-1 0:0.277114 1:0.45814899 
-1 0:0.27539599 1:0.460765 
-1 0:0.28198299 1:0.44904399 
-1 0:0.28281501 1:0.40676001 
-1 0:0.285647 1:0.41810301 
-1 0:0.28101701 1:0.40634799 
-1 0:0.271938 1:0.42921099 
-1 0:0.27507201 1:0.40978 
-1 0:0.302728 1:0.43150401 
-1 0:0.310395 1:0.44448999 
-1 0:0.31662199 1:0.44705901 
-1 0:0.30784899 1:0.506549 
-1 0:0.296152 1:0.47664699 
-1 0:0.31344101 1:0.45864201 
-1 0:0.31001401 1:0.467574 
-1 0:0.318578 1:0.48877999 
-1 0:0.31334001 1:0.43968999 
-1 0:0.25894201 1:0.388805 
-1 0:0.277343 1:0.42527401 
-1 0:0.34416801 1:0.50181001 
-1 0:0.33493 1:0.491247 
-1 0:0.331016 1:0.492838 
-1 0:0.32705501 1:0.462226 
-1 0:0.33680901 1:0.49606001 
-1 0:0.337942 1:0.47939301 
-1 0:0.34166199 1:0.51451701 
-1 0:0.34722599 1:0.499612 
-1 0:0.340846 1:0.48213401 
-1 0:0.29053 1:0.42500001 
-1 0:0.262941 1:0.39161801 
-1 0:0.30585599 1:0.46614301 
-1 0:0.29853699 1:0.45112699 
-1 0:0.28860301 1:0.44822299 
-1 0:0.27824 1:0.42060801 
-1 0:0.27890199 1:0.40964699 
-1 0:0.26630399 1:0.423345 
-1 0:0.27397299 1:0.411881 
-1 0:0.25500399 1:0.40762299 
-1 0:0.258912 1:0.396207 
-1 0:0.24563099 1:0.396357 
-1 0:0.281993 1:0.41656601 
-1 0:0.27711499 1:0.40416101 
-1 0:0.26903799 1:0.421049 
-1 0:0.28663599 1:0.426229 
-1 0:0.26586801 1:0.394458 
-1 0:0.27171001 1:0.42608699 
-1 0:0.25946501 1:0.40339801 
-1 0:0.29266199 1:0.42164099 
-1 0:0.30616 1:0.43254501 
-1 0:0.26099199 1:0.39900199 
-1 0:0.30238801 1:0.44233501 
-1 0:0.30238801 1:0.44233501 
-1 0:0.297703 1:0.43797699 
-1 0:0.28771999 1:0.417772 
-1 0:0.261976 1:0.41758901 
-1 0:0.257687 1:0.420093 
-1 0:0.26718399 1:0.444217 
-1 0:0.29813299 1:0.42604399 
-1 0:0.279843 1:0.408595 
-1 0:0.27838799 1:0.40396401 
-1 0:0.304214 1:0.432558 
-1 0:0.28009701 1:0.405588 
-1 0:0.25547999 1:0.393271 
-1 0:0.26946899 1:0.42081699 
-1 0:0.26233801 1:0.403557 
-1 0:0.28490099 1:0.42718801 
-1 0:0.26512 1:0.397499 
-1 0:0.28481999 1:0.42528301 
-1 0:0.246232 1:0.38526499 
-1 0:0.29821599 1:0.43048501 
-1 0:0.249422 1:0.41273701 
-1 0:0.24793699 1:0.40007699 
-1 0:0.26191401 1:0.39951801 
-0.1706691223369019 0:0.29150701 1:0.41460401 
-1 0:0.34917101 1:0.50182098 
-1 0:0.299766 1:0.44090801 
-1 0:0.356222 1:0.55738503 
-1 0:0.350912 1:0.555866 
-1 0:0.31933299 1:0.46930999 
-1 0:0.34301901 1:0.56145602 
-1 0:0.349154 1:0.55071801 
-1 0:0.347031 1:0.57367498 
-1 0:0.34633899 1:0.55636299 
-1 0:0.358293 1:0.57530499 
-1 0:0.357795 1:0.56438202 
-1 0:0.34989399 1:0.55183297 
-1 0:0.35035399 1:0.56090498 
-1 0:0.31717899 1:0.46814099 
-1 0:0.31598201 1:0.48098299 
-1 0:0.32692999 1:0.46907201 
-1 0:0.276263 1:0.46547499 
-1 0:0.27302 1:0.46188501 
-1 0:0.26983199 1:0.43835399 
-1 0:0.27423701 1:0.40088299 
-1 0:0.27597299 1:0.41520101 
-1 0:0.27964899 1:0.41561699 
-1 0:0.28803599 1:0.417317 
-1 0:0.271348 1:0.40510601 
-1 0:0.28026599 1:0.43135399 
-1 0:0.26856399 1:0.397203 
-1 0:0.270208 1:0.42660099 
-1 0:0.28071299 1:0.42680699 
-1 0:0.28050801 1:0.434827 
-1 0:0.28458899 1:0.42750299 
-1 0:0.265724 1:0.394133 
-1 0:0.27320099 1:0.398904 
-1 0:0.264135 1:0.422869 
-1 0:0.28069299 1:0.42076501 
-1 0:0.260277 1:0.41467801 
-1 0:0.273202 1:0.42980701 
-1 0:0.281147 1:0.45199901 
-1 0:0.29231 1:0.44742501 
-1 0:0.287673 1:0.44615301 
-1 0:0.28622401 1:0.41017699 
-1 0:0.278433 1:0.464735 
-1 0:0.31174499 1:0.48503101 
-1 0:0.286686 1:0.42857999 
-1 0:0.29776901 1:0.462993 
-1 0:0.293412 1:0.46492299 
-1 0:0.279506 1:0.50993401 
-1 0:0.284628 1:0.49792799 
-1 0:0.28116 1:0.52492303 
-1 0:0.306826 1:0.52844602 
-1 0:0.32359499 1:0.457306 
-1 0:0.328439 1:0.485044 
-1 0:0.315997 1:0.48848301 
-1 0:0.333763 1:0.48301199 
-1 0:0.26170999 1:0.39881599 
-1 0:0.260609 1:0.438932 
-1 0:0.28584099 1:0.46575299 
-1 0:0.27235901 1:0.496223 
-1 0:0.278584 1:0.463029 
-1 0:0.28710601 1:0.44522199 
-1 0:0.286735 1:0.41781899 
-1 0:0.29418799 1:0.449936 
-1 0:0.270349 1:0.44811201 
-1 0:0.271038 1:0.40777501 
-1 0:0.29728699 1:0.441517 
-1 0:0.280231 1:0.41903999 
-1 0:0.28554401 1:0.45859301 
-1 0:0.28917 1:0.48023301 
-1 0:0.29515001 1:0.44785601 
-1 0:0.29701701 1:0.421157 
-1 0:0.27251899 1:0.420964 
-1 0:0.252911 1:0.48767599 
-1 0:0.29589799 1:0.48343 
-1 0:0.297346 1:0.43283099 
-1 0:0.271631 1:0.407947 
-1 0:0.26249999 1:0.44458801 
-1 0:0.29048499 1:0.433851 
-1 0:0.291545 1:0.418982 
-1 0:0.312372 1:0.46419001 
-1 0:0.236435 1:0.41506001 
-1 0:0.26370201 1:0.46012899 
-1 0:0.268747 1:0.49206901 
-1 0:0.26967001 1:0.444534 
-1 0:0.272935 1:0.447698 
-1 0:0.278492 1:0.413174 
-1 0:0.29333299 1:0.420329 
-1 0:0.28084299 1:0.41968501 
-1 0:0.29269099 1:0.464369 
-1 0:0.29152599 1:0.45267901 
-1 0:0.28988001 1:0.49978 
-1 0:0.27650899 1:0.412516 
-1 0:0.28219801 1:0.40717301 
-1 0:0.276281 1:0.42025599 
-1 0:0.268484 1:0.397203 
-1 0:0.270179 1:0.42660099 
-1 0:0.28066999 1:0.42680699 
-1 0:0.28084001 1:0.434827 
-1 0:0.28356299 1:0.440157 
-1 0:0.26765901 1:0.413389 
-1 0:0.27883899 1:0.42484599 
-1 0:0.262144 1:0.40912101 
-1 0:0.29076999 1:0.42798999 
-1 0:0.28109699 1:0.45199901 
-1 0:0.29482499 1:0.44909 
-1 0:0.28422701 1:0.431164 
-1 0:0.280911 1:0.46521801 
-1 0:0.30488601 1:0.49288499 
-1 0:0.284298 1:0.41861501 
-1 0:0.30028999 1:0.45023501 
-1 0:0.293713 1:0.45932099 
-1 0:0.28091601 1:0.503218 
-1 0:0.28389901 1:0.50816399 
-1 0:0.28758299 1:0.50538701 
-1 0:0.301319 1:0.52028102 
-1 0:0.32973501 1:0.48122799 
-1 0:0.30322599 1:0.49114701 
-1 0:0.32258201 1:0.48967999 
-1 0:0.246493 1:0.39454001 
-1 0:0.26025501 1:0.43092799 
-1 0:0.283683 1:0.45799699 
-1 0:0.26870301 1:0.49562699 
-1 0:0.279607 1:0.46645999 
-1 0:0.29291299 1:0.444998 
-1 0:0.29030001 1:0.415281 
-1 0:0.30247599 1:0.43422201 
-1 0:0.27743199 1:0.41524601 
-1 0:0.30824801 1:0.439152 
-1 0:0.26844001 1:0.403236 
-1 0:0.299519 1:0.43815801 
-1 0:0.27770999 1:0.414116 
-1 0:0.28253499 1:0.45847201 
-1 0:0.287931 1:0.47512001 
-1 0:0.28806201 1:0.44176599 
-1 0:0.24644201 1:0.38803399 
-1 0:0.274813 1:0.407823 
-1 0:0.261448 1:0.49184701 
-1 0:0.291646 1:0.47801799 
-1 0:0.284621 1:0.42608401 
-1 0:0.29038599 1:0.41969401 
-1 0:0.278108 1:0.41971499 
-1 0:0.262528 1:0.436492 
-1 0:0.29259801 1:0.435718 
-1 0:0.31699499 1:0.471461 
-1 0:0.306528 1:0.431398 
-1 0:0.243251 1:0.42502499 
-1 0:0.257548 1:0.45494199 
-1 0:0.26100299 1:0.49195299 
-1 0:0.266886 1:0.44544801 
-1 0:0.27938801 1:0.44239101 
-1 0:0.292153 1:0.42589799 
-1 0:0.27662101 1:0.41134301 
-1 0:0.28912401 1:0.46374801 
-1 0:0.291603 1:0.45652401 
-1 0:0.28830901 1:0.494735 
-1 0:0.237648 1:0.37952301 
-1 0:0.26771399 1:0.39476201 
-1 0:0.29187801 1:0.43800101 
-1 0:0.30860299 1:0.445187 
-1 0:0.29373199 1:0.41839999 
-1 0:0.313164 1:0.44015899 
-1 0:0.313164 1:0.44015899 
-1 0:0.26731899 1:0.40109301 
-1 0:0.26588899 1:0.40952101 
-1 0:0.268736 1:0.41127101 
-1 0:0.246832 1:0.392638 
-1 0:0.25772101 1:0.39705199 
-1 0:0.26515999 1:0.46531001 
-1 0:0.27598101 1:0.42007199 
-1 0:0.27364001 1:0.42183301 
-1 0:0.280503 1:0.413688 
-1 0:0.26921701 1:0.401977 
-1 0:0.269876 1:0.40164 
-1 0:0.26545301 1:0.394034 
-1 0:0.26249701 1:0.39390299 
-1 0:0.25113299 1:0.39320001 
-1 0:0.249548 1:0.40594101 
-1 0:0.25850499 1:0.394591 
-1 0:0.27701199 1:0.43373799 
-1 0:0.285198 1:0.41798499 
-1 0:0.271276 1:0.46121699 
-1 0:0.271276 1:0.46121699 
-1 0:0.28046301 1:0.42431501 
-1 0:0.28371599 1:0.408784 
-1 0:0.26751199 1:0.466593 
-1 0:0.27264801 1:0.492149 
-1 0:0.276847 1:0.40534401 
-1 0:0.24816 1:0.38191101 
-1 0:0.26144001 1:0.40703401 
-1 0:0.28010499 1:0.40972501 
-1 0:0.263486 1:0.40705901 
-1 0:0.26839301 1:0.39903799 
-1 0:0.25845 1:0.410658 
-1 0:0.233871 1:0.42816201 
-1 0:0.252985 1:0.392344 
-1 0:0.26575601 1:0.40994301 
-1 0:0.26744401 1:0.469437 
-1 0:0.274239 1:0.41706499 
-1 0:0.27796501 1:0.41835999 
-0.3647413950366275 0:0.25670499 1:0.38591501 
-1 0:0.25728101 1:0.39960501 
-1 0:0.259193 1:0.39079201 
-1 0:0.277854 1:0.40533501 
-1 0:0.28051099 1:0.428431 
-1 0:0.27586901 1:0.41613501 
-1 0:0.287092 1:0.45050499 
-1 0:0.27237099 1:0.415658 
-1 0:0.27530101 1:0.400269 
-1 0:0.254713 1:0.416922 
-1 0:0.26192501 1:0.50969601 
-1 0:0.27618399 1:0.40724301 
-1 0:0.25236899 1:0.40415499 
-1 0:0.26585799 1:0.40186799 
-1 0:0.273471 1:0.41845 
-1 0:0.27452499 1:0.40348601 
-1 0:0.25407901 1:0.41189599 
-1 0:0.234799 1:0.41172999 
